<?xml version="1.0" encoding="UTF-8"?>
<BIF VERSION="0.3"  xmlns="http://www.cs.ubc.ca/labs/lci/fopi/ve/XMLBIFv0_3"
	xmlns:xsi="http://www.w3.org/2001/XMLSchema-instance"
	xsi:schemaLocation="http://www.cs.ubc.ca/labs/lci/fopi/ve/XMLBIFv0_3 http://www.cs.ubc.ca/labs/lci/fopi/ve/XMLBIFv0_3/XMLBIFv0_3.xsd">
<NETWORK>
<NAME>Untitled</NAME>
<PROPERTY>detailed = </PROPERTY>
<PROPERTY>short = </PROPERTY>

<VARIABLE TYPE="nature">
	<NAME>creative</NAME>
	<OUTCOME>T</OUTCOME>
	<OUTCOME>F</OUTCOME>
	<OBS>F</OBS>
	<PROPERTY>position = (7285.0, 5198.0)</PROPERTY>
</VARIABLE>

<VARIABLE TYPE="nature">
	<NAME>smart</NAME>
	<OUTCOME>T</OUTCOME>
	<OUTCOME>F</OUTCOME>
	<OBS>T</OBS>
	<PROPERTY>position = (7441.0, 5199.0)</PROPERTY>
</VARIABLE>

<VARIABLE TYPE="nature">
	<NAME>party</NAME>
	<OUTCOME>T</OUTCOME>
	<OUTCOME>F</OUTCOME>
	<OBS>T</OBS>
	<PROPERTY>position = (7589.0, 5196.0)</PROPERTY>
</VARIABLE>

<VARIABLE TYPE="nature">
	<NAME>hw</NAME>
	<OUTCOME>T</OUTCOME>
	<OUTCOME>F</OUTCOME>
	<PROPERTY>position = (7453.0, 5329.0)</PROPERTY>
</VARIABLE>

<VARIABLE TYPE="nature">
	<NAME>project</NAME>
	<OUTCOME>T</OUTCOME>
	<OUTCOME>F</OUTCOME>
	<PROPERTY>position = (7522.0, 5271.0)</PROPERTY>
</VARIABLE>

<VARIABLE TYPE="nature">
	<NAME>success</NAME>
	<OUTCOME>T</OUTCOME>
	<OUTCOME>F</OUTCOME>
	<PROPERTY>position = (7542.0, 5360.0)</PROPERTY>
</VARIABLE>

<VARIABLE TYPE="nature">
	<NAME>happy</NAME>
	<OUTCOME>T</OUTCOME>
	<OUTCOME>F</OUTCOME>
	<PROPERTY>position = (7603.0, 5474.0)</PROPERTY>
</VARIABLE>

<VARIABLE TYPE="nature">
	<NAME>mac</NAME>
	<OUTCOME>T</OUTCOME>
	<OUTCOME>F</OUTCOME>
	<PROPERTY>position = (7360.0, 5320.0)</PROPERTY>
</VARIABLE>

<DEFINITION>
	<FOR>creative</FOR>
	<TABLE>0.6994 0.3006</TABLE>
</DEFINITION>

<DEFINITION>
	<FOR>smart</FOR>
	<TABLE>0.7048 0.2952</TABLE>
</DEFINITION>

<DEFINITION>
	<FOR>party</FOR>
	<TABLE>0.6022 0.3978</TABLE>
</DEFINITION>

<DEFINITION>
	<FOR>hw</FOR>
	<GIVEN>smart</GIVEN>
	<GIVEN>party</GIVEN>
	<TABLE>0.30492 0.69508 0.89848 0.10152 0.09353 0.90647 0.8028 0.1972</TABLE>
</DEFINITION>

<DEFINITION>
	<FOR>project</FOR>
	<GIVEN>creative</GIVEN>
	<GIVEN>smart</GIVEN>
	<TABLE>0.1055 0.8945 0.40288 0.59712 0.79381 0.20619 0.90517 0.09483</TABLE>
</DEFINITION>

<DEFINITION>
	<FOR>success</FOR>
	<GIVEN>hw</GIVEN>
	<GIVEN>project</GIVEN>
	<TABLE>0.04967 0.95033 0.30645 0.69355 0.2067 0.7933 0.89663 0.10337</TABLE>
</DEFINITION>

<DEFINITION>
	<FOR>happy</FOR>
	<GIVEN>party</GIVEN>
	<GIVEN>success</GIVEN>
	<GIVEN>mac</GIVEN>
	<TABLE>0.09385 0.90615 0.72152 0.27848 0.49232 0.50768 0.42012 0.57988 0.35799 0.64201 0.30682 0.69318 0.20497 0.79503 0.95937 0.04063</TABLE>
</DEFINITION>

<DEFINITION>
	<FOR>mac</FOR>
	<GIVEN>creative</GIVEN>
	<GIVEN>smart</GIVEN>
	<TABLE>0.12156 0.87844 0.89712 0.10288 0.41331 0.58669 0.6858 0.3142</TABLE>
</DEFINITION>
</NETWORK>
</BIF>
