<?xml version="1.0" encoding="UTF-8"?>
<BIF VERSION="0.3"  xmlns="http://www.cs.ubc.ca/labs/lci/fopi/ve/XMLBIFv0_3"
	xmlns:xsi="http://www.w3.org/2001/XMLSchema-instance"
	xsi:schemaLocation="http://www.cs.ubc.ca/labs/lci/fopi/ve/XMLBIFv0_3 http://www.cs.ubc.ca/labs/lci/fopi/ve/XMLBIFv0_3/XMLBIFv0_3.xsd">
<NETWORK>
<NAME>Untitled</NAME>
<PROPERTY>detailed = </PROPERTY>
<PROPERTY>short = </PROPERTY>

<VARIABLE TYPE="nature">
	<NAME>Party</NAME>
	<OUTCOME>T</OUTCOME>
	<OUTCOME>F</OUTCOME>
	<OBS>T</OBS>
	<PROPERTY>position = (7177.0, 5075.0)</PROPERTY>
</VARIABLE>

<VARIABLE TYPE="nature">
	<NAME>Smart</NAME>
	<OUTCOME>T</OUTCOME>
	<OUTCOME>F</OUTCOME>
	<OBS>T</OBS>
	<PROPERTY>position = (7302.0, 5073.0)</PROPERTY>
</VARIABLE>

<VARIABLE TYPE="nature">
	<NAME>Creative</NAME>
	<OUTCOME>T</OUTCOME>
	<OUTCOME>F</OUTCOME>
	<OBS>F</OBS>
	<PROPERTY>position = (7426.0, 5073.0)</PROPERTY>
</VARIABLE>

<VARIABLE TYPE="nature">
	<NAME>HW</NAME>
	<OUTCOME>T</OUTCOME>
	<OUTCOME>F</OUTCOME>
	<PROPERTY>position = (7224.0, 5151.0)</PROPERTY>
</VARIABLE>

<VARIABLE TYPE="nature">
	<NAME>Mac</NAME>
	<OUTCOME>T</OUTCOME>
	<OUTCOME>F</OUTCOME>
	<PROPERTY>position = (7337.0, 5151.0)</PROPERTY>
</VARIABLE>

<VARIABLE TYPE="nature">
	<NAME>Project</NAME>
	<OUTCOME>T</OUTCOME>
	<OUTCOME>F</OUTCOME>
	<PROPERTY>position = (7311.0, 5258.0)</PROPERTY>
</VARIABLE>

<VARIABLE TYPE="nature">
	<NAME>Success</NAME>
	<OUTCOME>T</OUTCOME>
	<OUTCOME>F</OUTCOME>
	<PROPERTY>position = (7232.0, 5306.0)</PROPERTY>
</VARIABLE>

<VARIABLE TYPE="nature">
	<NAME>Happy</NAME>
	<OUTCOME>T</OUTCOME>
	<OUTCOME>F</OUTCOME>
	<PROPERTY>position = (7122.0, 5318.0)</PROPERTY>
</VARIABLE>

<DEFINITION>
	<FOR>Party</FOR>
	<TABLE>0.6022 0.3978</TABLE>
</DEFINITION>

<DEFINITION>
	<FOR>Smart</FOR>
	<TABLE>0.7048 0.2952</TABLE>
</DEFINITION>

<DEFINITION>
	<FOR>Creative</FOR>
	<TABLE>0.6994 0.3006</TABLE>
</DEFINITION>

<DEFINITION>
	<FOR>HW</FOR>
	<GIVEN>Party</GIVEN>
	<GIVEN>Smart</GIVEN>
	<TABLE>0.8028 0.1972 0.09353 0.90647 0.89848 0.10152 0.30492 0.69508</TABLE>
</DEFINITION>

<DEFINITION>
	<FOR>Mac</FOR>
	<GIVEN>Smart</GIVEN>
	<GIVEN>Creative</GIVEN>
	<TABLE>0.6858 0.3142 0.41331 0.58669 0.89712 0.10288 0.12156 0.87844</TABLE>
</DEFINITION>

<DEFINITION>
	<FOR>Project</FOR>
	<GIVEN>Smart</GIVEN>
	<GIVEN>Creative</GIVEN>
	<TABLE>0.90517 0.09483 0.79381 0.20619 0.40288 0.59712 0.1055 0.8945</TABLE>
</DEFINITION>

<DEFINITION>
	<FOR>Success</FOR>
	<GIVEN>HW</GIVEN>
	<GIVEN>Project</GIVEN>
	<TABLE>0.89663 0.10337 0.30645 0.69355 0.2067 0.7933 0.04967 0.95033</TABLE>
</DEFINITION>

<DEFINITION>
	<FOR>Happy</FOR>
	<GIVEN>Party</GIVEN>
	<GIVEN>Mac</GIVEN>
	<GIVEN>Success</GIVEN>
	<TABLE>0.9594 0.0406 0.49232 0.50768 0.72152 0.27848 0.42012 0.57988 0.35799 0.64201 0.20497 0.79503 0.30682 0.69318 0.09385 0.90615</TABLE>
</DEFINITION>
</NETWORK>
</BIF>
